net {
}
node var_0{
    states = ("0"  "1");
    weight = None;
}
node var_1{
    states = ("0"  "1");
    weight = None;
}
node var_10{
    states = ("0"  "1");
    weight = None;
}
node var_11{
    states = ("0"  "1");
    weight = None;
}
node var_12{
    states = ("0"  "1");
    weight = None;
}
node var_13{
    states = ("0"  "1");
    weight = None;
}
node var_14{
    states = ("0"  "1");
    weight = None;
}
node var_15{
    states = ("0"  "1");
    weight = None;
}
node var_16{
    states = ("0"  "1");
    weight = None;
}
node var_17{
    states = ("0"  "1");
    weight = None;
}
node var_18{
    states = ("0"  "1");
    weight = None;
}
node var_19{
    states = ("0"  "1");
    weight = None;
}
node var_2{
    states = ("0"  "1");
    weight = None;
}
node var_20{
    states = ("0"  "1");
    weight = None;
}
node var_21{
    states = ("0"  "1");
    weight = None;
}
node var_22{
    states = ("0"  "1");
    weight = None;
}
node var_23{
    states = ("0"  "1");
    weight = None;
}
node var_24{
    states = ("0"  "1");
    weight = None;
}
node var_25{
    states = ("0"  "1");
    weight = None;
}
node var_26{
    states = ("0"  "1");
    weight = None;
}
node var_27{
    states = ("0"  "1");
    weight = None;
}
node var_28{
    states = ("0"  "1");
    weight = None;
}
node var_29{
    states = ("0"  "1");
    weight = None;
}
node var_3{
    states = ("0"  "1");
    weight = None;
}
node var_30{
    states = ("0"  "1");
    weight = None;
}
node var_31{
    states = ("0"  "1");
    weight = None;
}
node var_32{
    states = ("0"  "1");
    weight = None;
}
node var_33{
    states = ("0"  "1");
    weight = None;
}
node var_34{
    states = ("0"  "1");
    weight = None;
}
node var_35{
    states = ("0"  "1");
    weight = None;
}
node var_36{
    states = ("0"  "1");
    weight = None;
}
node var_37{
    states = ("0"  "1");
    weight = None;
}
node var_38{
    states = ("0"  "1");
    weight = None;
}
node var_39{
    states = ("0"  "1");
    weight = None;
}
node var_4{
    states = ("0"  "1");
    weight = None;
}
node var_40{
    states = ("0"  "1");
    weight = None;
}
node var_41{
    states = ("0"  "1");
    weight = None;
}
node var_42{
    states = ("0"  "1");
    weight = None;
}
node var_43{
    states = ("0"  "1");
    weight = None;
}
node var_44{
    states = ("0"  "1");
    weight = None;
}
node var_45{
    states = ("0"  "1");
    weight = None;
}
node var_46{
    states = ("0"  "1");
    weight = None;
}
node var_47{
    states = ("0"  "1");
    weight = None;
}
node var_48{
    states = ("0"  "1");
    weight = None;
}
node var_49{
    states = ("0"  "1");
    weight = None;
}
node var_5{
    states = ("0"  "1");
    weight = None;
}
node var_50{
    states = ("0"  "1");
    weight = None;
}
node var_51{
    states = ("0"  "1");
    weight = None;
}
node var_52{
    states = ("0"  "1");
    weight = None;
}
node var_53{
    states = ("0"  "1");
    weight = None;
}
node var_6{
    states = ("0"  "1");
    weight = None;
}
node var_7{
    states = ("0"  "1");
    weight = None;
}
node var_8{
    states = ("0"  "1");
    weight = None;
}
node var_9{
    states = ("0"  "1");
    weight = None;
}
potential (var_0 |){
 data = (0.5 0.5);
}
potential (var_1 |){
 data = (0.1667 0.8333);
}
potential (var_10 |){
 data = (0.7273 0.2727);
}
potential (var_11 |){
 data = (0.375 0.625);
}
potential (var_12 |){
 data = (0.7 0.3);
}
potential (var_13 | var_2 var_4){
 data = (((0.25   0.5833)
  (0.75   0.4167))

 ((0.2857 0.5714)
  (0.7143 0.4286)));
}
potential (var_14 | var_6){
 data = ((0.6667 0.5714)
 (0.3333 0.4286));
}
potential (var_15 | var_6){
 data = ((0.4545 0.3636)
 (0.5455 0.6364));
}
potential (var_16 | var_9){
 data = ((0.5   0.625)
 (0.5   0.375));
}
potential (var_17 | var_10 var_3){
 data = (((0.5    0.625 )
  (0.5    0.375 ))

 ((0.3333 0.6923)
  (0.6667 0.3077)));
}
potential (var_18 | var_11){
 data = ((0.625  0.5833)
 (0.375  0.4167));
}
potential (var_19 | var_14){
 data = ((0.4615 0.25  )
 (0.5385 0.75  ));
}
potential (var_2 |){
 data = (0.7143 0.2857);
}
potential (var_20 | var_14){
 data = ((0.5    0.5714)
 (0.5    0.4286));
}
potential (var_21 | var_14 var_4 var_11 var_10){
 data = (((((0.3333 0.8   )
    (0.6667 0.2   ))

   ((0.3333 0.5455)
    (0.6667 0.4545)))


  (((0.4286 0.3333)
    (0.5714 0.6667))

   ((0.6    0.375 )
    (0.4    0.625 ))))



 ((((0.75   0.5714)
    (0.25   0.4286))

   ((0.6667 0.2857)
    (0.3333 0.7143)))


  (((0.4118 0.5556)
    (0.5882 0.4444))

   ((0.5833 0.4615)
    (0.4167 0.5385)))));
}
potential (var_22 | var_3 var_15 var_11){
 data = ((((0.625  0.5556)
   (0.375  0.4444))

  ((0.75   0.5455)
   (0.25   0.4545)))


 (((0.625  0.5   )
   (0.375  0.5   ))

  ((0.1667 0.4286)
   (0.8333 0.5714))));
}
potential (var_23 | var_8 var_15){
 data = (((0.8    0.6   )
  (0.2    0.4   ))

 ((0.4444 0.6667)
  (0.5556 0.3333)));
}
potential (var_24 | var_18){
 data = ((0.4706 0.4   )
 (0.5294 0.6   ));
}
potential (var_25 | var_18 var_10 var_6){
 data = ((((0.5556 0.7778)
   (0.4444 0.2222))

  ((0.6    0.3571)
   (0.4    0.6429)))


 (((0.5714 0.2857)
   (0.4286 0.7143))

  ((0.8333 0.6429)
   (0.1667 0.3571))));
}
potential (var_26 | var_11 var_18){
 data = (((0.7273 0.7778)
  (0.2727 0.2222))

 ((0.4615 0.4   )
  (0.5385 0.6   )));
}
potential (var_27 | var_3 var_5 var_18 var_15){
 data = (((((0.4706 0.2   )
    (0.5294 0.8   ))

   ((0.4667 0.5882)
    (0.5333 0.4118)))


  (((0.7    0.1667)
    (0.3    0.8333))

   ((0.5556 0.3333)
    (0.4444 0.6667))))



 ((((0.4444 0.5263)
    (0.5556 0.4737))

   ((0.6667 0.5625)
    (0.3333 0.4375)))


  (((0.4667 0.3333)
    (0.5333 0.6667))

   ((0.4667 0.7   )
    (0.5333 0.3   )))));
}
potential (var_28 | var_11 var_15 var_21){
 data = ((((0.8333 0.7273)
   (0.1667 0.2727))

  ((0.4545 0.5882)
   (0.5455 0.4118)))


 (((0.625  0.4   )
   (0.375  0.6   ))

  ((0.25   0.5   )
   (0.75   0.5   ))));
}
potential (var_29 | var_21 var_1 var_12){
 data = ((((0.6667 0.6667)
   (0.3333 0.3333))

  ((0.2    0.7143)
   (0.8    0.2857)))


 (((0.5    0.4706)
   (0.5    0.5294))

  ((0.5    0.5333)
   (0.5    0.4667))));
}
potential (var_3 |){
 data = (0.4286 0.5714);
}
potential (var_30 | var_15 var_6 var_4 var_21){
 data = (((((0.4444 0.4737)
    (0.5556 0.5263))

   ((0.5833 0.5   )
    (0.4167 0.5   )))


  (((0.5    0.5455)
    (0.5    0.4545))

   ((0.5714 0.4545)
    (0.4286 0.5455))))



 ((((0.4    0.5   )
    (0.6    0.5   ))

   ((0.5    0.4667)
    (0.5    0.5333)))


  (((0.3333 0.7778)
    (0.6667 0.2222))

   ((0.6667 0.2222)
    (0.3333 0.7778)))));
}
potential (var_31 | var_22 var_21 var_9){
 data = ((((0.5263 0.3333)
   (0.4737 0.6667))

  ((0.5714 0.75  )
   (0.4286 0.25  )))


 (((0.5625 0.3333)
   (0.4375 0.6667))

  ((0.2308 0.6   )
   (0.7692 0.4   ))));
}
potential (var_32 | var_3 var_25){
 data = (((0.3077 0.3333)
  (0.6923 0.6667))

 ((0.4706 0.3333)
  (0.5294 0.6667)));
}
potential (var_33 | var_25 var_15){
 data = (((0.2857 0.4   )
  (0.7143 0.6   ))

 ((0.625  0.7273)
  (0.375  0.2727)));
}
potential (var_34 | var_5 var_25){
 data = (((0.6667 0.5294)
  (0.3333 0.4706))

 ((0.3    0.4737)
  (0.7    0.5263)));
}
potential (var_35 | var_21 var_25 var_2){
 data = ((((0.6667 0.5   )
   (0.3333 0.5   ))

  ((0.25   0.3   )
   (0.75   0.7   )))


 (((0.625  0.5263)
   (0.375  0.4737))

  ((0.3571 0.6   )
   (0.6429 0.4   ))));
}
potential (var_36 | var_21 var_19 var_25 var_11){
 data = (((((0.5333 0.6364)
    (0.4667 0.3636))

   ((0.4    0.4   )
    (0.6    0.6   )))


  (((0.6667 0.6364)
    (0.3333 0.3636))

   ((0.3333 0.4286)
    (0.6667 0.5714))))



 ((((0.5882 0.5   )
    (0.4118 0.5   ))

   ((0.3636 0.7143)
    (0.6364 0.2857)))


  (((0.4706 0.2727)
    (0.5294 0.7273))

   ((0.5    0.3571)
    (0.5    0.6429)))));
}
potential (var_37 | var_12 var_21 var_25){
 data = ((((0.3571 0.4737)
   (0.6429 0.5263))

  ((0.3636 0.5385)
   (0.6364 0.4615)))


 (((0.1667 0.5   )
   (0.8333 0.5   ))

  ((0.7778 0.4706)
   (0.2222 0.5294))));
}
potential (var_38 | var_26 var_1){
 data = (((0.3571 0.2727)
  (0.6429 0.7273))

 ((0.4615 0.4118)
  (0.5385 0.5882)));
}
potential (var_39 | var_26 var_14){
 data = (((0.5294 0.5385)
  (0.4706 0.4615))

 ((0.5    0.5   )
  (0.5    0.5   )));
}
potential (var_4 |){
 data = (0.375 0.625);
}
potential (var_40 | var_22 var_19 var_28){
 data = ((((0.2857 0.3333)
   (0.7143 0.6667))

  ((0.4615 0.7143)
   (0.5385 0.2857)))


 (((0.3077 0.5882)
   (0.6923 0.4118))

  ((0.3    0.5882)
   (0.7    0.4118))));
}
potential (var_41 | var_32 var_19){
 data = (((0.4737 0.4118)
  (0.5263 0.5882))

 ((0.5556 0.7143)
  (0.4444 0.2857)));
}
potential (var_42 | var_28 var_35){
 data = (((0.8    0.3333)
  (0.2    0.6667))

 ((0.5    0.25  )
  (0.5    0.75  )));
}
potential (var_43 | var_35){
 data = ((0.4615 0.2727)
 (0.5385 0.7273));
}
potential (var_44 | var_36 var_26){
 data = (((0.6923 0.4375)
  (0.3077 0.5625))

 ((0.5294 0.6667)
  (0.4706 0.3333)));
}
potential (var_45 | var_5 var_39){
 data = (((0.6667 0.5   )
  (0.3333 0.5   ))

 ((0.4444 0.4167)
  (0.5556 0.5833)));
}
potential (var_46 | var_44 var_9 var_6 var_0){
 data = (((((0.8333 0.4444)
    (0.1667 0.5556))

   ((0.25   0.6667)
    (0.75   0.3333)))


  (((0.5    0.6364)
    (0.5    0.3636))

   ((0.5    0.3846)
    (0.5    0.6154))))



 ((((0.5263 0.2222)
    (0.4737 0.7778))

   ((0.5    0.4118)
    (0.5    0.5882)))


  (((0.4286 0.5263)
    (0.5714 0.4737))

   ((0.5    0.5833)
    (0.5    0.4167)))));
}
potential (var_47 | var_1 var_44 var_25){
 data = ((((0.4118 0.625 )
   (0.5882 0.375 ))

  ((0.5    0.6   )
   (0.5    0.4   )))


 (((0.7692 0.8333)
   (0.2308 0.1667))

  ((0.6923 0.5714)
   (0.3077 0.4286))));
}
potential (var_48 | var_33 var_3 var_1 var_31 var_45){
 data = ((((((0.1667 0.5882)
     (0.8333 0.4118))

    ((0.6667 0.7692)
     (0.3333 0.2308)))


   (((0.6923 0.5   )
     (0.3077 0.5   ))

    ((0.5385 0.4737)
     (0.4615 0.5263))))



  ((((0.5    0.8333)
     (0.5    0.1667))

    ((0.25   0.4444)
     (0.75   0.5556)))


   (((0.4375 0.6   )
     (0.5625 0.4   ))

    ((0.4737 0.5294)
     (0.5263 0.4706)))))




 (((((0.7692 0.7273)
     (0.2308 0.2727))

    ((0.4    0.6154)
     (0.6    0.3846)))


   (((0.5556 0.4444)
     (0.4444 0.5556))

    ((0.2727 0.4   )
     (0.7273 0.6   ))))



  ((((0.4737 0.6429)
     (0.5263 0.3571))

    ((0.8182 0.2   )
     (0.1818 0.8   )))


   (((0.75   0.3333)
     (0.25   0.6667))

    ((0.4167 0.4375)
     (0.5833 0.5625))))));
}
potential (var_49 | var_14 var_45 var_20){
 data = ((((0.6667 0.4   )
   (0.3333 0.6   ))

  ((0.5556 0.8182)
   (0.4444 0.1818)))


 (((0.3636 0.6923)
   (0.6364 0.3077))

  ((0.8333 0.6923)
   (0.1667 0.3077))));
}
potential (var_5 |){
 data = (0.4545 0.5455);
}
potential (var_50 | var_38 var_40 var_47){
 data = ((((0.2308 0.4667)
   (0.7692 0.5333))

  ((0.4545 0.25  )
   (0.5455 0.75  )))


 (((0.5714 0.3846)
   (0.4286 0.6154))

  ((0.7778 0.5714)
   (0.2222 0.4286))));
}
potential (var_51 | var_27 var_35 var_32 var_1 var_48 var_34 var_19 var_24 var_49){
 data = ((((((((((0.25   0.3636)
         (0.75   0.6364))

        ((0.3077 0.7273)
         (0.6923 0.2727)))


       (((0.5    0.25  )
         (0.5    0.75  ))

        ((0.6667 0.5   )
         (0.3333 0.5   ))))



      ((((0.8182 0.6667)
         (0.1818 0.3333))

        ((0.5    0.6154)
         (0.5    0.3846)))


       (((0.625  0.6429)
         (0.375  0.3571))

        ((0.6154 0.4737)
         (0.3846 0.5263)))))




     (((((0.5    0.4375)
         (0.5    0.5625))

        ((0.2857 0.5455)
         (0.7143 0.4545)))


       (((0.2308 0.4118)
         (0.7692 0.5882))

        ((0.6923 0.4667)
         (0.3077 0.5333))))



      ((((0.3333 0.6667)
         (0.6667 0.3333))

        ((0.625  0.3333)
         (0.375  0.6667)))


       (((0.4375 0.5625)
         (0.5625 0.4375))

        ((0.625  0.7   )
         (0.375  0.3   ))))))





    ((((((0.2727 0.5   )
         (0.7273 0.5   ))

        ((0.6364 0.4737)
         (0.3636 0.5263)))


       (((0.1818 0.3571)
         (0.8182 0.6429))

        ((0.5    0.5714)
         (0.5    0.4286))))



      ((((0.5    0.4167)
         (0.5    0.5833))

        ((0.5    0.5556)
         (0.5    0.4444)))


       (((0.8182 0.8333)
         (0.1818 0.1667))

        ((0.4375 0.7273)
         (0.5625 0.2727)))))




     (((((0.5    0.1818)
         (0.5    0.8182))

        ((0.75   0.75  )
         (0.25   0.25  )))


       (((0.375  0.2   )
         (0.625  0.8   ))

        ((0.625  0.4706)
         (0.375  0.5294))))



      ((((0.7    0.5833)
         (0.3    0.4167))

        ((0.4667 0.625 )
         (0.5333 0.375 )))


       (((0.4118 0.8   )
         (0.5882 0.2   ))

        ((0.6667 0.4   )
         (0.3333 0.6   )))))))






   (((((((0.75   0.4375)
         (0.25   0.5625))

        ((0.2857 0.4   )
         (0.7143 0.6   )))


       (((0.25   0.4444)
         (0.75   0.5556))

        ((0.5714 0.4545)
         (0.4286 0.5455))))



      ((((0.5556 0.1818)
         (0.4444 0.8182))

        ((0.4286 0.6154)
         (0.5714 0.3846)))


       (((0.5    0.5333)
         (0.5    0.4667))

        ((0.6667 0.4286)
         (0.3333 0.5714)))))




     (((((0.5714 0.625 )
         (0.4286 0.375 ))

        ((0.2222 0.7778)
         (0.7778 0.2222)))


       (((0.6154 0.3333)
         (0.3846 0.6667))

        ((0.4615 0.5882)
         (0.5385 0.4118))))



      ((((0.25   0.2857)
         (0.75   0.7143))

        ((0.6667 0.5   )
         (0.3333 0.5   )))


       (((0.2    0.6364)
         (0.8    0.3636))

        ((0.3846 0.4286)
         (0.6154 0.5714))))))





    ((((((0.3    0.7273)
         (0.7    0.2727))

        ((0.4667 0.5   )
         (0.5333 0.5   )))


       (((0.625  0.2857)
         (0.375  0.7143))

        ((0.5625 0.8182)
         (0.4375 0.1818))))



      ((((0.5833 0.25  )
         (0.4167 0.75  ))

        ((0.5    0.5556)
         (0.5    0.4444)))


       (((0.7273 0.1818)
         (0.2727 0.8182))

        ((0.5714 0.7273)
         (0.4286 0.2727)))))




     (((((0.25   0.5294)
         (0.75   0.4706))

        ((0.3333 0.625 )
         (0.6667 0.375 )))


       (((0.5    0.5556)
         (0.5    0.4444))

        ((0.5455 0.7778)
         (0.4545 0.2222))))



      ((((0.3333 0.7143)
         (0.6667 0.2857))

        ((0.6667 0.7273)
         (0.3333 0.2727)))


       (((0.4615 0.3   )
         (0.5385 0.7   ))

        ((0.1818 0.4118)
         (0.8182 0.5882))))))))







  ((((((((0.7143 0.2222)
         (0.2857 0.7778))

        ((0.6667 0.8   )
         (0.3333 0.2   )))


       (((0.4706 0.6429)
         (0.5294 0.3571))

        ((0.5    0.7692)
         (0.5    0.2308))))



      ((((0.4706 0.5625)
         (0.5294 0.4375))

        ((0.5    0.6   )
         (0.5    0.4   )))


       (((0.4167 0.4   )
         (0.5833 0.6   ))

        ((0.625  0.6   )
         (0.375  0.4   )))))




     (((((0.625  0.4615)
         (0.375  0.5385))

        ((0.6923 0.5   )
         (0.3077 0.5   )))


       (((0.5    0.4615)
         (0.5    0.5385))

        ((0.6667 0.75  )
         (0.3333 0.25  ))))



      ((((0.7143 0.3077)
         (0.2857 0.6923))

        ((0.6    0.4444)
         (0.4    0.5556)))


       (((0.4615 0.4   )
         (0.5385 0.6   ))

        ((0.5    0.6667)
         (0.5    0.3333))))))





    ((((((0.5    0.7273)
         (0.5    0.2727))

        ((0.1818 0.25  )
         (0.8182 0.75  )))


       (((0.75   0.6667)
         (0.25   0.3333))

        ((0.3571 0.5   )
         (0.6429 0.5   ))))



      ((((0.4    0.4737)
         (0.6    0.5263))

        ((0.625  0.7273)
         (0.375  0.2727)))


       (((0.25   0.4444)
         (0.75   0.5556))

        ((0.4615 0.4286)
         (0.5385 0.5714)))))




     (((((0.25   0.2857)
         (0.75   0.7143))

        ((0.3333 0.5   )
         (0.6667 0.5   )))


       (((0.2727 0.4706)
         (0.7273 0.5294))

        ((0.4286 0.5   )
         (0.5714 0.5   ))))



      ((((0.1667 0.3636)
         (0.8333 0.6364))

        ((0.6    0.4286)
         (0.4    0.5714)))


       (((0.75   0.6154)
         (0.25   0.3846))

        ((0.5833 0.5   )
         (0.4167 0.5   )))))))






   (((((((0.7692 0.5556)
         (0.2308 0.4444))

        ((0.7692 0.5   )
         (0.2308 0.5   )))


       (((0.5455 0.25  )
         (0.4545 0.75  ))

        ((0.4706 0.6429)
         (0.5294 0.3571))))



      ((((0.4545 0.4   )
         (0.5455 0.6   ))

        ((0.5556 0.4118)
         (0.4444 0.5882)))


       (((0.7143 0.25  )
         (0.2857 0.75  ))

        ((0.3846 0.7   )
         (0.6154 0.3   )))))




     (((((0.4286 0.5   )
         (0.5714 0.5   ))

        ((0.6364 0.4167)
         (0.3636 0.5833)))


       (((0.5833 0.6923)
         (0.4167 0.3077))

        ((0.3846 0.5   )
         (0.6154 0.5   ))))



      ((((0.3571 0.3571)
         (0.6429 0.6429))

        ((0.5714 0.75  )
         (0.4286 0.25  )))


       (((0.6429 0.1818)
         (0.3571 0.8182))

        ((0.6364 0.1667)
         (0.3636 0.8333))))))





    ((((((0.7143 0.25  )
         (0.2857 0.75  ))

        ((0.2308 0.7143)
         (0.7692 0.2857)))


       (((0.3333 0.7692)
         (0.6667 0.2308))

        ((0.4286 0.6667)
         (0.5714 0.3333))))



      ((((0.5333 0.7143)
         (0.4667 0.2857))

        ((0.625  0.3333)
         (0.375  0.6667)))


       (((0.4444 0.2857)
         (0.5556 0.7143))

        ((0.3571 0.75  )
         (0.6429 0.25  )))))




     (((((0.5556 0.1667)
         (0.4444 0.8333))

        ((0.5    0.5   )
         (0.5    0.5   )))


       (((0.3333 0.4667)
         (0.6667 0.5333))

        ((0.3846 0.7143)
         (0.6154 0.2857))))



      ((((0.6    0.5455)
         (0.4    0.4545))

        ((0.3333 0.1667)
         (0.6667 0.8333)))


       (((0.7    0.4286)
         (0.3    0.5714))

        ((0.5    0.75  )
         (0.5    0.25  )))))))))








 (((((((((0.5455 0.3077)
         (0.4545 0.6923))

        ((0.8    0.4286)
         (0.2    0.5714)))


       (((0.625  0.8182)
         (0.375  0.1818))

        ((0.25   0.375 )
         (0.75   0.625 ))))



      ((((0.5    0.625 )
         (0.5    0.375 ))

        ((0.5    0.25  )
         (0.5    0.75  )))


       (((0.5    0.7   )
         (0.5    0.3   ))

        ((0.6667 0.3   )
         (0.3333 0.7   )))))




     (((((0.6667 0.625 )
         (0.3333 0.375 ))

        ((0.6923 0.6429)
         (0.3077 0.3571)))


       (((0.4    0.4286)
         (0.6    0.5714))

        ((0.6923 0.5   )
         (0.3077 0.5   ))))



      ((((0.6667 0.7778)
         (0.3333 0.2222))

        ((0.5556 0.4444)
         (0.4444 0.5556)))


       (((0.6667 0.3333)
         (0.3333 0.6667))

        ((0.2222 0.4286)
         (0.7778 0.5714))))))





    ((((((0.5625 0.3077)
         (0.4375 0.6923))

        ((0.5    0.3333)
         (0.5    0.6667)))


       (((0.6667 0.1667)
         (0.3333 0.8333))

        ((0.2308 0.5714)
         (0.7692 0.4286))))



      ((((0.5556 0.3333)
         (0.4444 0.6667))

        ((0.3077 0.5   )
         (0.6923 0.5   )))


       (((0.8    0.5385)
         (0.2    0.4615))

        ((0.4    0.25  )
         (0.6    0.75  )))))




     (((((0.6667 0.4167)
         (0.3333 0.5833))

        ((0.2857 0.5   )
         (0.7143 0.5   )))


       (((0.5    0.5   )
         (0.5    0.5   ))

        ((0.4444 0.625 )
         (0.5556 0.375 ))))



      ((((0.5556 0.4737)
         (0.4444 0.5263))

        ((0.2727 0.375 )
         (0.7273 0.625 )))


       (((0.6    0.4706)
         (0.4    0.5294))

        ((0.4286 0.4545)
         (0.5714 0.5455)))))))






   (((((((0.4    0.5   )
         (0.6    0.5   ))

        ((0.5263 0.3333)
         (0.4737 0.6667)))


       (((0.3333 0.5   )
         (0.6667 0.5   ))

        ((0.75   0.3636)
         (0.25   0.6364))))



      ((((0.6364 0.6   )
         (0.3636 0.4   ))

        ((0.3333 0.1667)
         (0.6667 0.8333)))


       (((0.75   0.7692)
         (0.25   0.2308))

        ((0.5    0.5882)
         (0.5    0.4118)))))




     (((((0.8182 0.6429)
         (0.1818 0.3571))

        ((0.375  0.6364)
         (0.625  0.3636)))


       (((0.3333 0.8333)
         (0.6667 0.1667))

        ((0.625  0.1667)
         (0.375  0.8333))))



      ((((0.5833 0.4706)
         (0.4167 0.5294))

        ((0.2308 0.7   )
         (0.7692 0.3   )))


       (((0.7692 0.7   )
         (0.2308 0.3   ))

        ((0.8    0.6667)
         (0.2    0.3333))))))





    ((((((0.6364 0.7143)
         (0.3636 0.2857))

        ((0.3846 0.3846)
         (0.6154 0.6154)))


       (((0.5625 0.5   )
         (0.4375 0.5   ))

        ((0.7273 0.7778)
         (0.2727 0.2222))))



      ((((0.25   0.4545)
         (0.75   0.5455))

        ((0.6    0.5   )
         (0.4    0.5   )))


       (((0.5385 0.1818)
         (0.4615 0.8182))

        ((0.75   0.5263)
         (0.25   0.4737)))))




     (((((0.4286 0.7   )
         (0.5714 0.3   ))

        ((0.3    0.7778)
         (0.7    0.2222)))


       (((0.5556 0.5294)
         (0.4444 0.4706))

        ((0.6923 0.7143)
         (0.3077 0.2857))))



      ((((0.2308 0.4286)
         (0.7692 0.5714))

        ((0.3333 0.5   )
         (0.6667 0.5   )))


       (((0.4545 0.5882)
         (0.5455 0.4118))

        ((0.6667 0.5714)
         (0.3333 0.4286))))))))







  ((((((((0.5833 0.75  )
         (0.4167 0.25  ))

        ((0.4545 0.5   )
         (0.5455 0.5   )))


       (((0.5625 0.6667)
         (0.4375 0.3333))

        ((0.6667 0.3636)
         (0.3333 0.6364))))



      ((((0.5    0.5714)
         (0.5    0.4286))

        ((0.25   0.4545)
         (0.75   0.5455)))


       (((0.625  0.4444)
         (0.375  0.5556))

        ((0.5882 0.25  )
         (0.4118 0.75  )))))




     (((((0.8182 0.3636)
         (0.1818 0.6364))

        ((0.5    0.2727)
         (0.5    0.7273)))


       (((0.25   0.3333)
         (0.75   0.6667))

        ((0.6364 0.6154)
         (0.3636 0.3846))))



      ((((0.1818 0.6154)
         (0.8182 0.3846))

        ((0.3333 0.3333)
         (0.6667 0.6667)))


       (((0.4118 0.5833)
         (0.5882 0.4167))

        ((0.5    0.1667)
         (0.5    0.8333))))))





    ((((((0.4286 0.4286)
         (0.5714 0.5714))

        ((0.2308 0.4   )
         (0.7692 0.6   )))


       (((0.3333 0.4545)
         (0.6667 0.5455))

        ((0.5625 0.5   )
         (0.4375 0.5   ))))



      ((((0.6667 0.7143)
         (0.3333 0.2857))

        ((0.6    0.5   )
         (0.4    0.5   )))


       (((0.3333 0.8   )
         (0.6667 0.2   ))

        ((0.5    0.5   )
         (0.5    0.5   )))))




     (((((0.3333 0.5   )
         (0.6667 0.5   ))

        ((0.7143 0.3   )
         (0.2857 0.7   )))


       (((0.3333 0.4545)
         (0.6667 0.5455))

        ((0.7143 0.4167)
         (0.2857 0.5833))))



      ((((0.4545 0.6154)
         (0.5455 0.3846))

        ((0.1818 0.6   )
         (0.8182 0.4   )))


       (((0.4    0.3571)
         (0.6    0.6429))

        ((0.75   0.4545)
         (0.25   0.5455)))))))






   (((((((0.6364 0.2308)
         (0.3636 0.7692))

        ((0.3    0.4286)
         (0.7    0.5714)))


       (((0.2222 0.5   )
         (0.7778 0.5   ))

        ((0.2    0.5625)
         (0.8    0.4375))))



      ((((0.7778 0.5556)
         (0.2222 0.4444))

        ((0.5    0.5714)
         (0.5    0.4286)))


       (((0.3846 0.75  )
         (0.6154 0.25  ))

        ((0.4118 0.1667)
         (0.5882 0.8333)))))




     (((((0.8182 0.2857)
         (0.1818 0.7143))

        ((0.3571 0.4   )
         (0.6429 0.6   )))


       (((0.5882 0.4615)
         (0.4118 0.5385))

        ((0.2857 0.3333)
         (0.7143 0.6667))))



      ((((0.5625 0.5556)
         (0.4375 0.4444))

        ((0.5294 0.4167)
         (0.4706 0.5833)))


       (((0.4667 0.4667)
         (0.5333 0.5333))

        ((0.4545 0.3333)
         (0.5455 0.6667))))))





    ((((((0.8    0.4444)
         (0.2    0.5556))

        ((0.5714 0.375 )
         (0.4286 0.625 )))


       (((0.25   0.6429)
         (0.75   0.3571))

        ((0.5    0.7273)
         (0.5    0.2727))))



      ((((0.4    0.4706)
         (0.6    0.5294))

        ((0.4444 0.3636)
         (0.5556 0.6364)))


       (((0.6    0.7143)
         (0.4    0.2857))

        ((0.5    0.6667)
         (0.5    0.3333)))))




     (((((0.2    0.4118)
         (0.8    0.5882))

        ((0.6429 0.25  )
         (0.3571 0.75  )))


       (((0.6667 0.4375)
         (0.3333 0.5625))

        ((0.6    0.5   )
         (0.4    0.5   ))))



      ((((0.25   0.4   )
         (0.75   0.6   ))

        ((0.5    0.4   )
         (0.5    0.6   )))


       (((0.6    0.4286)
         (0.4    0.5714))

        ((0.3    0.2222)
         (0.7    0.7778))))))))));
}
potential (var_52 | var_50 var_21){
 data = (((0.2857 0.5   )
  (0.7143 0.5   ))

 ((0.7143 0.5   )
  (0.2857 0.5   )));
}
potential (var_53 | var_7 var_6 var_38 var_10 var_51){
 data = ((((((0.3333 0.6667)
     (0.6667 0.3333))

    ((0.8182 0.3636)
     (0.1818 0.6364)))


   (((0.5263 0.3846)
     (0.4737 0.6154))

    ((0.375  0.6   )
     (0.625  0.4   ))))



  ((((0.625  0.8182)
     (0.375  0.1818))

    ((0.4444 0.4286)
     (0.5556 0.5714)))


   (((0.4737 0.625 )
     (0.5263 0.375 ))

    ((0.5333 0.5625)
     (0.4667 0.4375)))))




 (((((0.5    0.5833)
     (0.5    0.4167))

    ((0.5    0.5294)
     (0.5    0.4706)))


   (((0.3636 0.5294)
     (0.6364 0.4706))

    ((0.3    0.5455)
     (0.7    0.4545))))



  ((((0.25   0.3333)
     (0.75   0.6667))

    ((0.5625 0.2308)
     (0.4375 0.7692)))


   (((0.5714 0.5   )
     (0.4286 0.5   ))

    ((0.6429 0.2308)
     (0.3571 0.7692))))));
}
potential (var_6 |){
 data = (0.5882 0.4118);
}
potential (var_7 |){
 data = (0.5263 0.4737);
}
potential (var_8 |){
 data = (0.5 0.5);
}
potential (var_9 |){
 data = (0.2308 0.7692);
}
