net {
}
node var_0{
    states = ("0"  "1");
    weight = None;
}
node var_1{
    states = ("0"  "1");
    weight = None;
}
node var_10{
    states = ("0"  "1");
    weight = None;
}
node var_11{
    states = ("0"  "1");
    weight = None;
}
node var_12{
    states = ("0"  "1");
    weight = None;
}
node var_13{
    states = ("0"  "1");
    weight = None;
}
node var_14{
    states = ("0"  "1");
    weight = None;
}
node var_15{
    states = ("0"  "1");
    weight = None;
}
node var_16{
    states = ("0"  "1");
    weight = None;
}
node var_17{
    states = ("0"  "1");
    weight = None;
}
node var_18{
    states = ("0"  "1");
    weight = None;
}
node var_19{
    states = ("0"  "1");
    weight = None;
}
node var_2{
    states = ("0"  "1");
    weight = None;
}
node var_20{
    states = ("0"  "1");
    weight = None;
}
node var_21{
    states = ("0"  "1");
    weight = None;
}
node var_22{
    states = ("0"  "1");
    weight = None;
}
node var_23{
    states = ("0"  "1");
    weight = None;
}
node var_24{
    states = ("0"  "1");
    weight = None;
}
node var_25{
    states = ("0"  "1");
    weight = None;
}
node var_26{
    states = ("0"  "1");
    weight = None;
}
node var_27{
    states = ("0"  "1");
    weight = None;
}
node var_28{
    states = ("0"  "1");
    weight = None;
}
node var_3{
    states = ("0"  "1");
    weight = None;
}
node var_30{
    states = ("0"  "1");
    weight = None;
}
node var_31{
    states = ("0"  "1");
    weight = None;
}
node var_32{
    states = ("0"  "1");
    weight = None;
}
node var_33{
    states = ("0"  "1");
    weight = None;
}
node var_34{
    states = ("0"  "1");
    weight = None;
}
node var_35{
    states = ("0"  "1");
    weight = None;
}
node var_36{
    states = ("0"  "1");
    weight = None;
}
node var_37{
    states = ("0"  "1");
    weight = None;
}
node var_38{
    states = ("0"  "1");
    weight = None;
}
node var_39{
    states = ("0"  "1");
    weight = None;
}
node var_4{
    states = ("0"  "1");
    weight = None;
}
node var_40{
    states = ("0"  "1");
    weight = None;
}
node var_41{
    states = ("0"  "1");
    weight = None;
}
node var_42{
    states = ("0"  "1");
    weight = None;
}
node var_43{
    states = ("0"  "1");
    weight = None;
}
node var_44{
    states = ("0"  "1");
    weight = None;
}
node var_45{
    states = ("0"  "1");
    weight = None;
}
node var_46{
    states = ("0"  "1");
    weight = None;
}
node var_47{
    states = ("0"  "1");
    weight = None;
}
node var_48{
    states = ("0"  "1");
    weight = None;
}
node var_49{
    states = ("0"  "1");
    weight = None;
}
node var_5{
    states = ("0"  "1");
    weight = None;
}
node var_50{
    states = ("0"  "1");
    weight = None;
}
node var_51{
    states = ("0"  "1");
    weight = None;
}
node var_52{
    states = ("0"  "1");
    weight = None;
}
node var_53{
    states = ("0"  "1");
    weight = None;
}
node var_54{
    states = ("0"  "1");
    weight = None;
}
node var_55{
    states = ("0"  "1");
    weight = None;
}
node var_56{
    states = ("0"  "1");
    weight = None;
}
node var_57{
    states = ("0"  "1");
    weight = None;
}
node var_58{
    states = ("0"  "1");
    weight = None;
}
node var_59{
    states = ("0"  "1");
    weight = None;
}
node var_6{
    states = ("0"  "1");
    weight = None;
}
node var_60{
    states = ("0"  "1");
    weight = None;
}
node var_61{
    states = ("0"  "1");
    weight = None;
}
node var_62{
    states = ("0"  "1");
    weight = None;
}
node var_63{
    states = ("0"  "1");
    weight = None;
}
node var_64{
    states = ("0"  "1");
    weight = None;
}
node var_67{
    states = ("0"  "1");
    weight = None;
}
node var_68{
    states = ("0"  "1");
    weight = None;
}
node var_69{
    states = ("0"  "1");
    weight = None;
}
node var_7{
    states = ("0"  "1");
    weight = None;
}
node var_70{
    states = ("0"  "1");
    weight = None;
}
node var_71{
    states = ("0"  "1");
    weight = None;
}
node var_72{
    states = ("0"  "1");
    weight = None;
}
node var_73{
    states = ("0"  "1");
    weight = None;
}
node var_74{
    states = ("0"  "1");
    weight = None;
}
node var_75{
    states = ("0"  "1");
    weight = None;
}
node var_76{
    states = ("0"  "1");
    weight = None;
}
node var_77{
    states = ("0"  "1");
    weight = None;
}
node var_78{
    states = ("0"  "1");
    weight = None;
}
node var_79{
    states = ("0"  "1");
    weight = None;
}
node var_8{
    states = ("0"  "1");
    weight = None;
}
node var_80{
    states = ("0"  "1");
    weight = None;
}
node var_81{
    states = ("0"  "1");
    weight = None;
}
node var_82{
    states = ("0"  "1");
    weight = None;
}
node var_83{
    states = ("0"  "1");
    weight = None;
}
node var_84{
    states = ("0"  "1");
    weight = None;
}
node var_85{
    states = ("0"  "1");
    weight = None;
}
node var_86{
    states = ("0"  "1");
    weight = None;
}
node var_87{
    states = ("0"  "1");
    weight = None;
}
node var_88{
    states = ("0"  "1");
    weight = None;
}
node var_89{
    states = ("0"  "1");
    weight = None;
}
node var_9{
    states = ("0"  "1");
    weight = None;
}
node var_90{
    states = ("0"  "1");
    weight = None;
}
node var_91{
    states = ("0"  "1");
    weight = None;
}
node var_92{
    states = ("0"  "1");
    weight = None;
}
node var_93{
    states = ("0"  "1");
    weight = None;
}
node var_94{
    states = ("0"  "1");
    weight = None;
}
node var_95{
    states = ("0"  "1");
    weight = None;
}
node var_96{
    states = ("0"  "1");
    weight = None;
}
node var_97{
    states = ("0"  "1");
    weight = None;
}
potential (var_0 |){
 data = (0.013 0.987);
}
potential (var_1 |){
 data = (0.069 0.931);
}
potential (var_10 |){
 data = (0.006 0.994);
}
potential (var_11 |){
 data = (0.015 0.985);
}
potential (var_12 |){
 data = (0.016 0.984);
}
potential (var_13 |){
 data = (0.015 0.985);
}
potential (var_14 |){
 data = (0.008 0.992);
}
potential (var_15 |){
 data = (0.012 0.988);
}
potential (var_16 |){
 data = (0.012 0.988);
}
potential (var_17 |){
 data = (0.01 0.99);
}
potential (var_18 |){
 data = (0.039 0.961);
}
potential (var_19 |){
 data = (0.005 0.995);
}
potential (var_2 |){
 data = (0.069 0.931);
}
potential (var_20 |){
 data = (0.046 0.954);
}
potential (var_21 |){
 data = (0.051 0.949);
}
potential (var_22 |){
 data = (0.069 0.931);
}
potential (var_23 |){
 data = (0.039 0.961);
}
potential (var_24 |){
 data = (0.005 0.995);
}
potential (var_25 |){
 data = (0.005 0.995);
}
potential (var_26 |){
 data = (0.014 0.986);
}
potential (var_27 |){
 data = (0.051 0.949);
}
potential (var_28 |){
 data = (0.011 0.989);
}
potential (var_3 |){
 data = (0.051 0.949);
}
potential (var_30 |){
 data = (0.069 0.931);
}
potential (var_31 |){
 data = (0.015 0.985);
}
potential (var_32 |){
 data = (0.011 0.989);
}
potential (var_33 |){
 data = (0.005 0.995);
}
potential (var_34 |){
 data = (0.039 0.961);
}
potential (var_35 |){
 data = (0.016 0.984);
}
potential (var_36 | var_3){
 data = ((0.2   0.001)
 (0.8   0.999));
}
potential (var_37 | var_6){
 data = ((0.95  0.001)
 (0.05  0.999));
}
potential (var_38 | var_2 var_6 var_1 var_4){
 data = (((((0.957  0.9548)
    (0.043  0.0452))

   ((0.1409 0.0966)
    (0.8591 0.9034)))


  (((0.9548 0.9525)
    (0.0452 0.0475))

   ((0.0966 0.05  )
    (0.9034 0.95  ))))



 ((((0.9548 0.9525)
    (0.0452 0.0475))

   ((0.0966 0.05  )
    (0.9034 0.95  )))


  (((0.9525 0.95  )
    (0.0475 0.05  ))

   ((0.05   0.001 )
    (0.95   0.999 )))));
}
potential (var_39 | var_10){
 data = ((0.75  0.001)
 (0.25  0.999));
}
potential (var_4 |){
 data = (0.069 0.931);
}
potential (var_40 | var_10){
 data = ((0.3   0.001)
 (0.7   0.999));
}
potential (var_41 | var_11){
 data = ((0.95  0.001)
 (0.05  0.999));
}
potential (var_42 | var_11){
 data = ((0.1   0.001)
 (0.9   0.999));
}
potential (var_43 | var_13){
 data = ((0.95  0.001)
 (0.05  0.999));
}
potential (var_44 | var_13){
 data = ((0.1   0.001)
 (0.9   0.999));
}
potential (var_45 | var_15){
 data = ((0.75  0.001)
 (0.25  0.999));
}
potential (var_46 | var_15 var_10){
 data = (((0.9099 0.7   )
  (0.0901 0.3   ))

 ((0.7    0.001 )
  (0.3    0.999 )));
}
potential (var_47 | var_15){
 data = ((0.75  0.001)
 (0.25  0.999));
}
potential (var_48 | var_18 var_11){
 data = (((0.0966 0.05  )
  (0.9034 0.95  ))

 ((0.05   0.001 )
  (0.95   0.999 )));
}
potential (var_49 | var_18 var_11){
 data = (((0.5996 0.5   )
  (0.4004 0.5   ))

 ((0.2    0.001 )
  (0.8    0.999 )));
}
potential (var_5 |){
 data = (0.003 0.997);
}
potential (var_50 | var_18 var_11){
 data = (((0.9675 0.95  )
  (0.0325 0.05  ))

 ((0.35   0.001 )
  (0.65   0.999 )));
}
potential (var_51 | var_18 var_11){
 data = (((0.8398 0.6   )
  (0.1602 0.4   ))

 ((0.6    0.001 )
  (0.4    0.999 )));
}
potential (var_52 | var_20 var_14 var_16){
 data = ((((0.6072 0.4394)
   (0.3928 0.5606))

  ((0.4394 0.2   )
   (0.5606 0.8   )))


 (((0.5095 0.3   )
   (0.4905 0.7   ))

  ((0.3    0.001 )
   (0.7    0.999 ))));
}
potential (var_53 | var_20 var_3){
 data = (((0.5495 0.5   )
  (0.4505 0.5   ))

 ((0.1    0.001 )
  (0.9    0.999 )));
}
potential (var_54 | var_20 var_22 var_3){
 data = ((((0.6954 0.6797)
   (0.3046 0.3203))

  ((0.2392 0.2   )
   (0.7608 0.8   )))


 (((0.6196 0.6   )
   (0.3804 0.4   ))

  ((0.05   0.001 )
   (0.95   0.999 ))));
}
potential (var_55 | var_22 var_3){
 data = (((0.9525 0.95  )
  (0.0475 0.05  ))

 ((0.05   0.001 )
  (0.95   0.999 )));
}
potential (var_56 | var_13 var_23){
 data = (((0.0966 0.05  )
  (0.9034 0.95  ))

 ((0.05   0.001 )
  (0.95   0.999 )));
}
potential (var_57 | var_23){
 data = ((0.1   0.001)
 (0.9   0.999));
}
potential (var_58 | var_13 var_23){
 data = (((0.9675 0.95  )
  (0.0325 0.05  ))

 ((0.35   0.001 )
  (0.65   0.999 )));
}
potential (var_59 | var_13 var_23){
 data = (((0.5996 0.5   )
  (0.4004 0.5   ))

 ((0.2    0.001 )
  (0.8    0.999 )));
}
potential (var_6 |){
 data = (0.051 0.949);
}
potential (var_60 | var_23 var_13){
 data = (((0.8398 0.6   )
  (0.1602 0.4   ))

 ((0.6    0.001 )
  (0.4    0.999 )));
}
potential (var_61 | var_24){
 data = ((0.85  0.001)
 (0.15  0.999));
}
potential (var_62 | var_21 var_7 var_19 var_27){
 data = (((((9.992e-01 9.920e-01)
    (8.000e-04 8.000e-03))

   ((9.960e-01 9.600e-01)
    (4.000e-03 4.000e-02)))


  (((9.960e-01 9.600e-01)
    (4.000e-03 4.000e-02))

   ((9.800e-01 8.000e-01)
    (2.000e-02 2.000e-01))))



 ((((9.960e-01 9.600e-01)
    (4.000e-03 4.000e-02))

   ((9.800e-01 8.000e-01)
    (2.000e-02 2.000e-01)))


  (((9.800e-01 8.000e-01)
    (2.000e-02 2.000e-01))

   ((9.000e-01 1.000e-03)
    (1.000e-01 9.990e-01)))));
}
potential (var_63 | var_7 var_19 var_27 var_21){
 data = (((((0.9788 0.5773)
    (0.0212 0.4227))

   ((0.9718 0.4369)
    (0.0282 0.5631)))


  (((0.9718 0.4369)
    (0.0282 0.5631))

   ((0.9625 0.25  )
    (0.0375 0.75  ))))



 ((((0.9718 0.4369)
    (0.0282 0.5631))

   ((0.9625 0.25  )
    (0.0375 0.75  )))


  (((0.9625 0.25  )
    (0.0375 0.75  ))

   ((0.95   0.001 )
    (0.05   0.999 )))));
}
potential (var_64 | var_4 var_28 var_23 var_1 var_2){
 data = ((((((0.8609 0.3054)
     (0.1391 0.6946))

    ((0.8456 0.229 )
     (0.1544 0.771 )))


   (((0.8456 0.229 )
     (0.1544 0.771 ))

    ((0.8287 0.1441)
     (0.1713 0.8559))))



  ((((0.8456 0.229 )
     (0.1544 0.771 ))

    ((0.8287 0.1441)
     (0.1713 0.8559)))


   (((0.8287 0.1441)
     (0.1713 0.8559))

    ((0.8098 0.05  )
     (0.1902 0.95  )))))




 (((((0.8538 0.2695)
     (0.1462 0.7305))

    ((0.8377 0.1892)
     (0.1623 0.8108)))


   (((0.8377 0.1892)
     (0.1623 0.8108))

    ((0.8198 0.1   )
     (0.1802 0.9   ))))



  ((((0.8377 0.1892)
     (0.1623 0.8108))

    ((0.8198 0.1   )
     (0.1802 0.9   )))


   (((0.8198 0.1   )
     (0.1802 0.9   ))

    ((0.8    0.001 )
     (0.2    0.999 ))))));
}
potential (var_67 | var_30 var_25 var_22){
 data = ((((0.5336 0.5095)
   (0.4664 0.4905))

  ((0.3343 0.3   )
   (0.6657 0.7   )))


 (((0.3343 0.3   )
   (0.6657 0.7   ))

  ((0.05   0.001 )
   (0.95   0.999 ))));
}
potential (var_68 | var_30 var_8){
 data = (((0.99  0.9  )
  (0.01  0.1  ))

 ((0.9   0.001)
  (0.1   0.999)));
}
potential (var_69 | var_25 var_22 var_30 var_0){
 data = (((((0.6855 0.5511)
    (0.3145 0.4489))

   ((0.6072 0.4394)
    (0.3928 0.5606)))


  (((0.5511 0.3594)
    (0.4489 0.6406))

   ((0.4394 0.2   )
    (0.5606 0.8   ))))



 ((((0.6072 0.4394)
    (0.3928 0.5606))

   ((0.5095 0.3   )
    (0.4905 0.7   )))


  (((0.4394 0.2   )
    (0.5606 0.8   ))

   ((0.3    0.001 )
    (0.7    0.999 )))));
}
potential (var_7 |){
 data = (0.051 0.949);
}
potential (var_70 | var_30 var_3){
 data = (((0.3594 0.2   )
  (0.6406 0.8   ))

 ((0.2    0.001 )
  (0.8    0.999 )));
}
potential (var_71 | var_24 var_30 var_12 var_20 var_8){
 data = ((((((0.9225 0.914 )
     (0.0775 0.086 ))

    ((0.9185 0.9096)
     (0.0815 0.0904)))


   (((0.226  0.1409)
     (0.774  0.8591))

    ((0.1861 0.0966)
     (0.8139 0.9034))))



  ((((0.9185 0.9096)
     (0.0815 0.0904))

    ((0.9143 0.9049)
     (0.0857 0.0951)))


   (((0.1861 0.0966)
     (0.8139 0.9034))

    ((0.1441 0.05  )
     (0.8559 0.95  )))))




 (((((0.9185 0.9096)
     (0.0815 0.0904))

    ((0.9143 0.9049)
     (0.0857 0.0951)))


   (((0.1861 0.0966)
     (0.8139 0.9034))

    ((0.1441 0.05  )
     (0.8559 0.95  ))))



  ((((0.9143 0.9049)
     (0.0857 0.0951))

    ((0.9099 0.9   )
     (0.0901 0.1   )))


   (((0.1441 0.05  )
     (0.8559 0.95  ))

    ((0.1    0.001 )
     (0.9    0.999 ))))));
}
potential (var_72 | var_25 var_22 var_15 var_30){
 data = (((((0.8477 0.4927)
    (0.1523 0.5073))

   ((0.8309 0.4369)
    (0.1691 0.5631)))


  (((0.7971 0.3243)
    (0.2029 0.6757))

   ((0.7748 0.25  )
    (0.2252 0.75  ))))



 ((((0.7971 0.3243)
    (0.2029 0.6757))

   ((0.7748 0.25  )
    (0.2252 0.75  )))


  (((0.7297 0.1   )
    (0.2703 0.9   ))

   ((0.7    0.001 )
    (0.3    0.999 )))));
}
potential (var_73 | var_24 var_30 var_12 var_20 var_8){
 data = ((((((0.9674 0.8371)
     (0.0326 0.1629))

    ((0.9638 0.8191)
     (0.0362 0.1809)))


   (((0.8371 0.1861)
     (0.1629 0.8139))

    ((0.8191 0.0966)
     (0.1809 0.9034))))



  ((((0.9657 0.8287)
     (0.0343 0.1713))

    ((0.9619 0.8098)
     (0.0381 0.1902)))


   (((0.8287 0.1441)
     (0.1713 0.8559))

    ((0.8098 0.05  )
     (0.1902 0.95  )))))




 (((((0.9657 0.8287)
     (0.0343 0.1713))

    ((0.9619 0.8098)
     (0.0381 0.1902)))


   (((0.8287 0.1441)
     (0.1713 0.8559))

    ((0.8098 0.05  )
     (0.1902 0.95  ))))



  ((((0.9639 0.8198)
     (0.0361 0.1802))

    ((0.96   0.8   )
     (0.04   0.2   )))


   (((0.8198 0.1   )
     (0.1802 0.9   ))

    ((0.8    0.001 )
     (0.2    0.999 ))))));
}
potential (var_74 | var_22 var_30 var_25){
 data = ((((0.5359 0.512 )
   (0.4641 0.488 ))

  ((0.2868 0.25  )
   (0.7132 0.75  )))


 (((0.3819 0.35  )
   (0.6181 0.65  ))

  ((0.05   0.001 )
   (0.95   0.999 ))));
}
potential (var_75 | var_31){
 data = ((0.95  0.001)
 (0.05  0.999));
}
potential (var_76 | var_31 var_11 var_13 var_16){
 data = (((((0.9944 0.992 )
    (0.0056 0.008 ))

   ((0.9719 0.96  )
    (0.0281 0.04  )))


  (((0.9719 0.96  )
    (0.0281 0.04  ))

   ((0.8599 0.8   )
    (0.1401 0.2   ))))



 ((((0.9719 0.96  )
    (0.0281 0.04  ))

   ((0.8599 0.8   )
    (0.1401 0.2   )))


  (((0.8599 0.8   )
    (0.1401 0.2   ))

   ((0.3    0.001 )
    (0.7    0.999 )))));
}
potential (var_77 | var_31 var_11 var_13 var_20 var_14 var_16){
 data = (((((((9.991e-01 9.987e-01)
      (9.000e-04 1.300e-03))

     ((9.955e-01 9.936e-01)
      (4.500e-03 6.400e-03)))


    (((9.989e-01 9.984e-01)
      (1.100e-03 1.600e-03))

     ((9.944e-01 9.920e-01)
      (5.600e-03 8.000e-03))))



   ((((9.955e-01 9.936e-01)
      (4.500e-03 6.400e-03))

     ((9.775e-01 9.679e-01)
      (2.250e-02 3.210e-02)))


    (((9.944e-01 9.920e-01)
      (5.600e-03 8.000e-03))

     ((9.719e-01 9.600e-01)
      (2.810e-02 4.000e-02)))))




  (((((9.955e-01 9.936e-01)
      (4.500e-03 6.400e-03))

     ((9.775e-01 9.679e-01)
      (2.250e-02 3.210e-02)))


    (((9.944e-01 9.920e-01)
      (5.600e-03 8.000e-03))

     ((9.719e-01 9.600e-01)
      (2.810e-02 4.000e-02))))



   ((((9.775e-01 9.679e-01)
      (2.250e-02 3.210e-02))

     ((8.878e-01 8.398e-01)
      (1.122e-01 1.602e-01)))


    (((9.719e-01 9.600e-01)
      (2.810e-02 4.000e-02))

     ((8.599e-01 8.000e-01)
      (1.401e-01 2.000e-01))))))





 ((((((9.955e-01 9.936e-01)
      (4.500e-03 6.400e-03))

     ((9.775e-01 9.679e-01)
      (2.250e-02 3.210e-02)))


    (((9.944e-01 9.920e-01)
      (5.600e-03 8.000e-03))

     ((9.719e-01 9.600e-01)
      (2.810e-02 4.000e-02))))



   ((((9.775e-01 9.679e-01)
      (2.250e-02 3.210e-02))

     ((8.878e-01 8.398e-01)
      (1.122e-01 1.602e-01)))


    (((9.719e-01 9.600e-01)
      (2.810e-02 4.000e-02))

     ((8.599e-01 8.000e-01)
      (1.401e-01 2.000e-01)))))




  (((((9.775e-01 9.679e-01)
      (2.250e-02 3.210e-02))

     ((8.878e-01 8.398e-01)
      (1.122e-01 1.602e-01)))


    (((9.719e-01 9.600e-01)
      (2.810e-02 4.000e-02))

     ((8.599e-01 8.000e-01)
      (1.401e-01 2.000e-01))))



   ((((8.878e-01 8.398e-01)
      (1.122e-01 1.602e-01))

     ((4.394e-01 2.000e-01)
      (5.606e-01 8.000e-01)))


    (((8.599e-01 8.000e-01)
      (1.401e-01 2.000e-01))

     ((3.000e-01 1.000e-03)
      (7.000e-01 9.990e-01)))))));
}
potential (var_78 | var_31){
 data = ((0.1   0.001)
 (0.9   0.999));
}
potential (var_79 | var_28 var_32 var_9 var_5){
 data = (((((0.9976 0.992 )
    (0.0024 0.008 ))

   ((0.988  0.96  )
    (0.012  0.04  )))


  (((0.988  0.96  )
    (0.012  0.04  ))

   ((0.9399 0.8   )
    (0.0601 0.2   ))))



 ((((0.988  0.96  )
    (0.012  0.04  ))

   ((0.9399 0.8   )
    (0.0601 0.2   )))


  (((0.9399 0.8   )
    (0.0601 0.2   ))

   ((0.7    0.001 )
    (0.3    0.999 )))));
}
potential (var_8 |){
 data = (0.02 0.98);
}
potential (var_80 | var_28 var_32 var_9 var_5){
 data = (((((0.9788 0.5773)
    (0.0212 0.4227))

   ((0.9718 0.4369)
    (0.0282 0.5631)))


  (((0.9718 0.4369)
    (0.0282 0.5631))

   ((0.9625 0.25  )
    (0.0375 0.75  ))))



 ((((0.9718 0.4369)
    (0.0282 0.5631))

   ((0.9625 0.25  )
    (0.0375 0.75  )))


  (((0.9625 0.25  )
    (0.0375 0.75  ))

   ((0.95   0.001 )
    (0.05   0.999 )))));
}
potential (var_81 | var_28 var_32 var_30 var_9 var_8 var_25 var_22){
 data = ((((((((0.6522 0.5657)
       (0.3478 0.4343))

      ((0.5037 0.3802)
       (0.4963 0.6198)))


     (((0.5657 0.4577)
       (0.4343 0.5423))

      ((0.3802 0.226 )
       (0.6198 0.774 ))))



    ((((0.6343 0.5433)
       (0.3657 0.4567))

      ((0.4781 0.3482)
       (0.5219 0.6518)))


     (((0.5433 0.4297)
       (0.4567 0.5703))

      ((0.3482 0.1861)
       (0.6518 0.8139)))))




   (((((0.6343 0.5433)
       (0.3657 0.4567))

      ((0.4781 0.3482)
       (0.5219 0.6518)))


     (((0.5433 0.4297)
       (0.4567 0.5703))

      ((0.3482 0.1861)
       (0.6518 0.8139))))



    ((((0.6154 0.5198)
       (0.3846 0.4802))

      ((0.4512 0.3146)
       (0.5488 0.6854)))


     (((0.5198 0.4003)
       (0.4802 0.5997))

      ((0.3146 0.1441)
       (0.6854 0.8559))))))





  ((((((0.6343 0.5433)
       (0.3657 0.4567))

      ((0.4781 0.3482)
       (0.5219 0.6518)))


     (((0.5433 0.4297)
       (0.4567 0.5703))

      ((0.3482 0.1861)
       (0.6518 0.8139))))



    ((((0.6154 0.5198)
       (0.3846 0.4802))

      ((0.4512 0.3146)
       (0.5488 0.6854)))


     (((0.5198 0.4003)
       (0.4802 0.5997))

      ((0.3146 0.1441)
       (0.6854 0.8559)))))




   (((((0.6154 0.5198)
       (0.3846 0.4802))

      ((0.4512 0.3146)
       (0.5488 0.6854)))


     (((0.5198 0.4003)
       (0.4802 0.5997))

      ((0.3146 0.1441)
       (0.6854 0.8559))))



    ((((0.5956 0.495 )
       (0.4044 0.505 ))

      ((0.4228 0.2793)
       (0.5772 0.7207)))


     (((0.495  0.3694)
       (0.505  0.6306))

      ((0.2793 0.1   )
       (0.7207 0.9   )))))))






 (((((((0.614  0.5179)
       (0.386  0.4821))

      ((0.4491 0.312 )
       (0.5509 0.688 )))


     (((0.5179 0.398 )
       (0.4821 0.602 ))

      ((0.312  0.1409)
       (0.688  0.8591))))



    ((((0.5941 0.4931)
       (0.4059 0.5069))

      ((0.4207 0.2766)
       (0.5793 0.7234)))


     (((0.4931 0.367 )
       (0.5069 0.633 ))

      ((0.2766 0.0966)
       (0.7234 0.9034)))))




   (((((0.5941 0.4931)
       (0.4059 0.5069))

      ((0.4207 0.2766)
       (0.5793 0.7234)))


     (((0.4931 0.367 )
       (0.5069 0.633 ))

      ((0.2766 0.0966)
       (0.7234 0.9034))))



    ((((0.5731 0.4669)
       (0.4269 0.5331))

      ((0.3908 0.2392)
       (0.6092 0.7608)))


     (((0.4669 0.3343)
       (0.5331 0.6657))

      ((0.2392 0.05  )
       (0.7608 0.95  ))))))





  ((((((0.5941 0.4931)
       (0.4059 0.5069))

      ((0.4207 0.2766)
       (0.5793 0.7234)))


     (((0.4931 0.367 )
       (0.5069 0.633 ))

      ((0.2766 0.0966)
       (0.7234 0.9034))))



    ((((0.5731 0.4669)
       (0.4269 0.5331))

      ((0.3908 0.2392)
       (0.6092 0.7608)))


     (((0.4669 0.3343)
       (0.5331 0.6657))

      ((0.2392 0.05  )
       (0.7608 0.95  )))))




   (((((0.5731 0.4669)
       (0.4269 0.5331))

      ((0.3908 0.2392)
       (0.6092 0.7608)))


     (((0.4669 0.3343)
       (0.5331 0.6657))

      ((0.2392 0.05  )
       (0.7608 0.95  ))))



    ((((0.5511 0.4394)
       (0.4489 0.5606))

      ((0.3594 0.2   )
       (0.6406 0.8   )))


     (((0.4394 0.3   )
       (0.5606 0.7   ))

      ((0.2    0.001 )
       (0.8    0.999 ))))))));
}
potential (var_82 | var_1 var_2 var_0 var_9 var_4 var_16 var_28 var_32){
 data = (((((((((9.999e-01 9.999e-01)
        (1.000e-04 1.000e-04))

       ((9.999e-01 9.999e-01)
        (1.000e-04 1.000e-04)))


      (((9.999e-01 9.999e-01)
        (1.000e-04 1.000e-04))

       ((9.999e-01 9.999e-01)
        (1.000e-04 1.000e-04))))



     ((((9.999e-01 9.999e-01)
        (1.000e-04 1.000e-04))

       ((9.999e-01 9.999e-01)
        (1.000e-04 1.000e-04)))


      (((9.999e-01 9.999e-01)
        (1.000e-04 1.000e-04))

       ((9.999e-01 9.999e-01)
        (1.000e-04 1.000e-04)))))




    (((((9.982e-01 9.980e-01)
        (1.800e-03 2.000e-03))

       ((9.981e-01 9.978e-01)
        (1.900e-03 2.200e-03)))


      (((9.981e-01 9.978e-01)
        (1.900e-03 2.200e-03))

       ((9.980e-01 9.977e-01)
        (2.000e-03 2.300e-03))))



     ((((9.981e-01 9.978e-01)
        (1.900e-03 2.200e-03))

       ((9.980e-01 9.977e-01)
        (2.000e-03 2.300e-03)))


      (((9.980e-01 9.977e-01)
        (2.000e-03 2.300e-03))

       ((9.979e-01 9.976e-01)
        (2.100e-03 2.400e-03))))))





   ((((((9.982e-01 9.980e-01)
        (1.800e-03 2.000e-03))

       ((9.981e-01 9.978e-01)
        (1.900e-03 2.200e-03)))


      (((9.981e-01 9.978e-01)
        (1.900e-03 2.200e-03))

       ((9.980e-01 9.977e-01)
        (2.000e-03 2.300e-03))))



     ((((9.981e-01 9.978e-01)
        (1.900e-03 2.200e-03))

       ((9.980e-01 9.977e-01)
        (2.000e-03 2.300e-03)))


      (((9.980e-01 9.977e-01)
        (2.000e-03 2.300e-03))

       ((9.979e-01 9.976e-01)
        (2.100e-03 2.400e-03)))))




    (((((9.632e-01 9.591e-01)
        (3.680e-02 4.090e-02))

       ((9.613e-01 9.570e-01)
        (3.870e-02 4.300e-02)))


      (((9.613e-01 9.570e-01)
        (3.870e-02 4.300e-02))

       ((9.593e-01 9.548e-01)
        (4.070e-02 4.520e-02))))



     ((((9.613e-01 9.570e-01)
        (3.870e-02 4.300e-02))

       ((9.593e-01 9.548e-01)
        (4.070e-02 4.520e-02)))


      (((9.593e-01 9.548e-01)
        (4.070e-02 4.520e-02))

       ((9.572e-01 9.525e-01)
        (4.280e-02 4.750e-02)))))))






  (((((((9.982e-01 9.980e-01)
        (1.800e-03 2.000e-03))

       ((9.981e-01 9.978e-01)
        (1.900e-03 2.200e-03)))


      (((9.981e-01 9.978e-01)
        (1.900e-03 2.200e-03))

       ((9.980e-01 9.977e-01)
        (2.000e-03 2.300e-03))))



     ((((9.981e-01 9.978e-01)
        (1.900e-03 2.200e-03))

       ((9.980e-01 9.977e-01)
        (2.000e-03 2.300e-03)))


      (((9.980e-01 9.977e-01)
        (2.000e-03 2.300e-03))

       ((9.979e-01 9.976e-01)
        (2.100e-03 2.400e-03)))))




    (((((9.632e-01 9.591e-01)
        (3.680e-02 4.090e-02))

       ((9.613e-01 9.570e-01)
        (3.870e-02 4.300e-02)))


      (((9.613e-01 9.570e-01)
        (3.870e-02 4.300e-02))

       ((9.593e-01 9.548e-01)
        (4.070e-02 4.520e-02))))



     ((((9.613e-01 9.570e-01)
        (3.870e-02 4.300e-02))

       ((9.593e-01 9.548e-01)
        (4.070e-02 4.520e-02)))


      (((9.593e-01 9.548e-01)
        (4.070e-02 4.520e-02))

       ((9.572e-01 9.525e-01)
        (4.280e-02 4.750e-02))))))





   ((((((9.632e-01 9.591e-01)
        (3.680e-02 4.090e-02))

       ((9.613e-01 9.570e-01)
        (3.870e-02 4.300e-02)))


      (((9.613e-01 9.570e-01)
        (3.870e-02 4.300e-02))

       ((9.593e-01 9.548e-01)
        (4.070e-02 4.520e-02))))



     ((((9.613e-01 9.570e-01)
        (3.870e-02 4.300e-02))

       ((9.593e-01 9.548e-01)
        (4.070e-02 4.520e-02)))


      (((9.593e-01 9.548e-01)
        (4.070e-02 4.520e-02))

       ((9.572e-01 9.525e-01)
        (4.280e-02 4.750e-02)))))




    (((((2.640e-01 1.830e-01)
        (7.360e-01 8.170e-01))

       ((2.260e-01 1.409e-01)
        (7.740e-01 8.591e-01)))


      (((2.260e-01 1.409e-01)
        (7.740e-01 8.591e-01))

       ((1.861e-01 9.660e-02)
        (8.139e-01 9.034e-01))))



     ((((2.260e-01 1.409e-01)
        (7.740e-01 8.591e-01))

       ((1.861e-01 9.660e-02)
        (8.139e-01 9.034e-01)))


      (((1.861e-01 9.660e-02)
        (8.139e-01 9.034e-01))

       ((1.441e-01 5.000e-02)
        (8.559e-01 9.500e-01))))))))







 ((((((((9.999e-01 9.999e-01)
        (1.000e-04 1.000e-04))

       ((9.999e-01 9.999e-01)
        (1.000e-04 1.000e-04)))


      (((9.999e-01 9.999e-01)
        (1.000e-04 1.000e-04))

       ((9.999e-01 9.999e-01)
        (1.000e-04 1.000e-04))))



     ((((9.999e-01 9.999e-01)
        (1.000e-04 1.000e-04))

       ((9.999e-01 9.999e-01)
        (1.000e-04 1.000e-04)))


      (((9.999e-01 9.999e-01)
        (1.000e-04 1.000e-04))

       ((9.999e-01 9.999e-01)
        (1.000e-04 1.000e-04)))))




    (((((9.981e-01 9.978e-01)
        (1.900e-03 2.200e-03))

       ((9.980e-01 9.977e-01)
        (2.000e-03 2.300e-03)))


      (((9.980e-01 9.977e-01)
        (2.000e-03 2.300e-03))

       ((9.979e-01 9.976e-01)
        (2.100e-03 2.400e-03))))



     ((((9.980e-01 9.977e-01)
        (2.000e-03 2.300e-03))

       ((9.979e-01 9.976e-01)
        (2.100e-03 2.400e-03)))


      (((9.979e-01 9.976e-01)
        (2.100e-03 2.400e-03))

       ((9.977e-01 9.975e-01)
        (2.300e-03 2.500e-03))))))





   ((((((9.981e-01 9.978e-01)
        (1.900e-03 2.200e-03))

       ((9.980e-01 9.977e-01)
        (2.000e-03 2.300e-03)))


      (((9.980e-01 9.977e-01)
        (2.000e-03 2.300e-03))

       ((9.979e-01 9.976e-01)
        (2.100e-03 2.400e-03))))



     ((((9.980e-01 9.977e-01)
        (2.000e-03 2.300e-03))

       ((9.979e-01 9.976e-01)
        (2.100e-03 2.400e-03)))


      (((9.979e-01 9.976e-01)
        (2.100e-03 2.400e-03))

       ((9.977e-01 9.975e-01)
        (2.300e-03 2.500e-03)))))




    (((((9.613e-01 9.570e-01)
        (3.870e-02 4.300e-02))

       ((9.593e-01 9.548e-01)
        (4.070e-02 4.520e-02)))


      (((9.593e-01 9.548e-01)
        (4.070e-02 4.520e-02))

       ((9.572e-01 9.525e-01)
        (4.280e-02 4.750e-02))))



     ((((9.593e-01 9.548e-01)
        (4.070e-02 4.520e-02))

       ((9.572e-01 9.525e-01)
        (4.280e-02 4.750e-02)))


      (((9.572e-01 9.525e-01)
        (4.280e-02 4.750e-02))

       ((9.550e-01 9.500e-01)
        (4.500e-02 5.000e-02)))))))






  (((((((9.981e-01 9.978e-01)
        (1.900e-03 2.200e-03))

       ((9.980e-01 9.977e-01)
        (2.000e-03 2.300e-03)))


      (((9.980e-01 9.977e-01)
        (2.000e-03 2.300e-03))

       ((9.979e-01 9.976e-01)
        (2.100e-03 2.400e-03))))



     ((((9.980e-01 9.977e-01)
        (2.000e-03 2.300e-03))

       ((9.979e-01 9.976e-01)
        (2.100e-03 2.400e-03)))


      (((9.979e-01 9.976e-01)
        (2.100e-03 2.400e-03))

       ((9.977e-01 9.975e-01)
        (2.300e-03 2.500e-03)))))




    (((((9.613e-01 9.570e-01)
        (3.870e-02 4.300e-02))

       ((9.593e-01 9.548e-01)
        (4.070e-02 4.520e-02)))


      (((9.593e-01 9.548e-01)
        (4.070e-02 4.520e-02))

       ((9.572e-01 9.525e-01)
        (4.280e-02 4.750e-02))))



     ((((9.593e-01 9.548e-01)
        (4.070e-02 4.520e-02))

       ((9.572e-01 9.525e-01)
        (4.280e-02 4.750e-02)))


      (((9.572e-01 9.525e-01)
        (4.280e-02 4.750e-02))

       ((9.550e-01 9.500e-01)
        (4.500e-02 5.000e-02))))))





   ((((((9.613e-01 9.570e-01)
        (3.870e-02 4.300e-02))

       ((9.593e-01 9.548e-01)
        (4.070e-02 4.520e-02)))


      (((9.593e-01 9.548e-01)
        (4.070e-02 4.520e-02))

       ((9.572e-01 9.525e-01)
        (4.280e-02 4.750e-02))))



     ((((9.593e-01 9.548e-01)
        (4.070e-02 4.520e-02))

       ((9.572e-01 9.525e-01)
        (4.280e-02 4.750e-02)))


      (((9.572e-01 9.525e-01)
        (4.280e-02 4.750e-02))

       ((9.550e-01 9.500e-01)
        (4.500e-02 5.000e-02)))))




    (((((2.260e-01 1.409e-01)
        (7.740e-01 8.591e-01))

       ((1.861e-01 9.660e-02)
        (8.139e-01 9.034e-01)))


      (((1.861e-01 9.660e-02)
        (8.139e-01 9.034e-01))

       ((1.441e-01 5.000e-02)
        (8.559e-01 9.500e-01))))



     ((((1.861e-01 9.660e-02)
        (8.139e-01 9.034e-01))

       ((1.441e-01 5.000e-02)
        (8.559e-01 9.500e-01)))


      (((1.441e-01 5.000e-02)
        (8.559e-01 9.500e-01))

       ((1.000e-01 1.000e-03)
        (9.000e-01 9.990e-01)))))))));
}
potential (var_83 | var_1 var_32 var_4 var_2 var_18){
 data = ((((((0.8609 0.3054)
     (0.1391 0.6946))

    ((0.8456 0.229 )
     (0.1544 0.771 )))


   (((0.8456 0.229 )
     (0.1544 0.771 ))

    ((0.8287 0.1441)
     (0.1713 0.8559))))



  ((((0.8456 0.229 )
     (0.1544 0.771 ))

    ((0.8287 0.1441)
     (0.1713 0.8559)))


   (((0.8287 0.1441)
     (0.1713 0.8559))

    ((0.8098 0.05  )
     (0.1902 0.95  )))))




 (((((0.8538 0.2695)
     (0.1462 0.7305))

    ((0.8377 0.1892)
     (0.1623 0.8108)))


   (((0.8377 0.1892)
     (0.1623 0.8108))

    ((0.8198 0.1   )
     (0.1802 0.9   ))))



  ((((0.8377 0.1892)
     (0.1623 0.8108))

    ((0.8198 0.1   )
     (0.1802 0.9   )))


   (((0.8198 0.1   )
     (0.1802 0.9   ))

    ((0.8    0.001 )
     (0.2    0.999 ))))));
}
potential (var_84 | var_33 var_24 var_12){
 data = ((((0.998 0.96 )
   (0.002 0.04 ))

  ((0.99  0.8  )
   (0.01  0.2  )))


 (((0.99  0.8  )
   (0.01  0.2  ))

  ((0.95  0.001)
   (0.05  0.999))));
}
potential (var_85 | var_18 var_34){
 data = (((0.1892 0.1   )
  (0.8108 0.9   ))

 ((0.1    0.001 )
  (0.9    0.999 )));
}
potential (var_86 | var_34 var_31){
 data = (((0.9675 0.95  )
  (0.0325 0.05  ))

 ((0.35   0.001 )
  (0.65   0.999 )));
}
potential (var_87 | var_34 var_31){
 data = (((0.0966 0.05  )
  (0.9034 0.95  ))

 ((0.05   0.001 )
  (0.95   0.999 )));
}
potential (var_88 | var_1 var_2 var_9 var_4 var_34){
 data = ((((((0.8609 0.3054)
     (0.1391 0.6946))

    ((0.8456 0.229 )
     (0.1544 0.771 )))


   (((0.8456 0.229 )
     (0.1544 0.771 ))

    ((0.8287 0.1441)
     (0.1713 0.8559))))



  ((((0.8456 0.229 )
     (0.1544 0.771 ))

    ((0.8287 0.1441)
     (0.1713 0.8559)))


   (((0.8287 0.1441)
     (0.1713 0.8559))

    ((0.8098 0.05  )
     (0.1902 0.95  )))))




 (((((0.8538 0.2695)
     (0.1462 0.7305))

    ((0.8377 0.1892)
     (0.1623 0.8108)))


   (((0.8377 0.1892)
     (0.1623 0.8108))

    ((0.8198 0.1   )
     (0.1802 0.9   ))))



  ((((0.8377 0.1892)
     (0.1623 0.8108))

    ((0.8198 0.1   )
     (0.1802 0.9   )))


   (((0.8198 0.1   )
     (0.1802 0.9   ))

    ((0.8    0.001 )
     (0.2    0.999 ))))));
}
potential (var_89 | var_2 var_18 var_20 var_34 var_17 var_1 var_4 var_23){
 data = (((((((((0.9774 0.9718)
        (0.0226 0.0282))

       ((0.9678 0.9598)
        (0.0322 0.0402)))


      (((0.9549 0.9437)
        (0.0451 0.0563))

       ((0.9357 0.9197)
        (0.0643 0.0803))))



     ((((0.9549 0.9437)
        (0.0451 0.0563))

       ((0.9357 0.9197)
        (0.0643 0.0803)))


      (((0.91   0.8876)
        (0.09   0.1124))

       ((0.8715 0.8395)
        (0.1285 0.1605)))))




    (((((0.9549 0.9437)
        (0.0451 0.0563))

       ((0.9357 0.9197)
        (0.0643 0.0803)))


      (((0.91   0.8876)
        (0.09   0.1124))

       ((0.8715 0.8395)
        (0.1285 0.1605))))



     ((((0.91   0.8876)
        (0.09   0.1124))

       ((0.8715 0.8395)
        (0.1285 0.1605)))


      (((0.8201 0.7753)
        (0.1799 0.2247))

       ((0.7432 0.6794)
        (0.2568 0.3206))))))





   ((((((0.9549 0.9437)
        (0.0451 0.0563))

       ((0.9357 0.9197)
        (0.0643 0.0803)))


      (((0.91   0.8876)
        (0.09   0.1124))

       ((0.8715 0.8395)
        (0.1285 0.1605))))



     ((((0.91   0.8876)
        (0.09   0.1124))

       ((0.8715 0.8395)
        (0.1285 0.1605)))


      (((0.8201 0.7753)
        (0.1799 0.2247))

       ((0.7432 0.6794)
        (0.2568 0.3206)))))




    (((((0.91   0.8876)
        (0.09   0.1124))

       ((0.8715 0.8395)
        (0.1285 0.1605)))


      (((0.8201 0.7753)
        (0.1799 0.2247))

       ((0.7432 0.6794)
        (0.2568 0.3206))))



     ((((0.8201 0.7753)
        (0.1799 0.2247))

       ((0.7432 0.6794)
        (0.2568 0.3206)))


      (((0.6405 0.5511)
        (0.3595 0.4489))

       ((0.487  0.3594)
        (0.513  0.6406)))))))






  (((((((0.9718 0.9648)
        (0.0282 0.0352))

       ((0.9598 0.9498)
        (0.0402 0.0502)))


      (((0.9437 0.9297)
        (0.0563 0.0703))

       ((0.9197 0.8997)
        (0.0803 0.1003))))



     ((((0.9437 0.9297)
        (0.0563 0.0703))

       ((0.9197 0.8997)
        (0.0803 0.1003)))


      (((0.8876 0.8596)
        (0.1124 0.1404))

       ((0.8395 0.7996)
        (0.1605 0.2004)))))




    (((((0.9437 0.9297)
        (0.0563 0.0703))

       ((0.9197 0.8997)
        (0.0803 0.1003)))


      (((0.8876 0.8596)
        (0.1124 0.1404))

       ((0.8395 0.7996)
        (0.1605 0.2004))))



     ((((0.8876 0.8596)
        (0.1124 0.1404))

       ((0.8395 0.7996)
        (0.1605 0.2004)))


      (((0.7753 0.7194)
        (0.2247 0.2806))

       ((0.6794 0.5996)
        (0.3206 0.4004))))))





   ((((((0.9437 0.9297)
        (0.0563 0.0703))

       ((0.9197 0.8997)
        (0.0803 0.1003)))


      (((0.8876 0.8596)
        (0.1124 0.1404))

       ((0.8395 0.7996)
        (0.1605 0.2004))))



     ((((0.8876 0.8596)
        (0.1124 0.1404))

       ((0.8395 0.7996)
        (0.1605 0.2004)))


      (((0.7753 0.7194)
        (0.2247 0.2806))

       ((0.6794 0.5996)
        (0.3206 0.4004)))))




    (((((0.8876 0.8596)
        (0.1124 0.1404))

       ((0.8395 0.7996)
        (0.1605 0.2004)))


      (((0.7753 0.7194)
        (0.2247 0.2806))

       ((0.6794 0.5996)
        (0.3206 0.4004))))



     ((((0.7753 0.7194)
        (0.2247 0.2806))

       ((0.6794 0.5996)
        (0.3206 0.4004)))


      (((0.5511 0.4394)
        (0.4489 0.5606))

       ((0.3594 0.2   )
        (0.6406 0.8   ))))))))







 ((((((((0.9718 0.9648)
        (0.0282 0.0352))

       ((0.9598 0.9498)
        (0.0402 0.0502)))


      (((0.9437 0.9297)
        (0.0563 0.0703))

       ((0.9197 0.8997)
        (0.0803 0.1003))))



     ((((0.9437 0.9297)
        (0.0563 0.0703))

       ((0.9197 0.8997)
        (0.0803 0.1003)))


      (((0.8876 0.8596)
        (0.1124 0.1404))

       ((0.8395 0.7996)
        (0.1605 0.2004)))))




    (((((0.9437 0.9297)
        (0.0563 0.0703))

       ((0.9197 0.8997)
        (0.0803 0.1003)))


      (((0.8876 0.8596)
        (0.1124 0.1404))

       ((0.8395 0.7996)
        (0.1605 0.2004))))



     ((((0.8876 0.8596)
        (0.1124 0.1404))

       ((0.8395 0.7996)
        (0.1605 0.2004)))


      (((0.7753 0.7194)
        (0.2247 0.2806))

       ((0.6794 0.5996)
        (0.3206 0.4004))))))





   ((((((0.9437 0.9297)
        (0.0563 0.0703))

       ((0.9197 0.8997)
        (0.0803 0.1003)))


      (((0.8876 0.8596)
        (0.1124 0.1404))

       ((0.8395 0.7996)
        (0.1605 0.2004))))



     ((((0.8876 0.8596)
        (0.1124 0.1404))

       ((0.8395 0.7996)
        (0.1605 0.2004)))


      (((0.7753 0.7194)
        (0.2247 0.2806))

       ((0.6794 0.5996)
        (0.3206 0.4004)))))




    (((((0.8876 0.8596)
        (0.1124 0.1404))

       ((0.8395 0.7996)
        (0.1605 0.2004)))


      (((0.7753 0.7194)
        (0.2247 0.2806))

       ((0.6794 0.5996)
        (0.3206 0.4004))))



     ((((0.7753 0.7194)
        (0.2247 0.2806))

       ((0.6794 0.5996)
        (0.3206 0.4004)))


      (((0.5511 0.4394)
        (0.4489 0.5606))

       ((0.3594 0.2   )
        (0.6406 0.8   )))))))






  (((((((0.9648 0.9561)
        (0.0352 0.0439))

       ((0.9498 0.9373)
        (0.0502 0.0627)))


      (((0.9297 0.9122)
        (0.0703 0.0878))

       ((0.8997 0.8747)
        (0.1003 0.1253))))



     ((((0.9297 0.9122)
        (0.0703 0.0878))

       ((0.8997 0.8747)
        (0.1003 0.1253)))


      (((0.8596 0.8246)
        (0.1404 0.1754))

       ((0.7996 0.7497)
        (0.2004 0.2503)))))




    (((((0.9297 0.9122)
        (0.0703 0.0878))

       ((0.8997 0.8747)
        (0.1003 0.1253)))


      (((0.8596 0.8246)
        (0.1404 0.1754))

       ((0.7996 0.7497)
        (0.2004 0.2503))))



     ((((0.8596 0.8246)
        (0.1404 0.1754))

       ((0.7996 0.7497)
        (0.2004 0.2503)))


      (((0.7194 0.6496)
        (0.2806 0.3504))

       ((0.5996 0.5   )
        (0.4004 0.5   ))))))





   ((((((0.9297 0.9122)
        (0.0703 0.0878))

       ((0.8997 0.8747)
        (0.1003 0.1253)))


      (((0.8596 0.8246)
        (0.1404 0.1754))

       ((0.7996 0.7497)
        (0.2004 0.2503))))



     ((((0.8596 0.8246)
        (0.1404 0.1754))

       ((0.7996 0.7497)
        (0.2004 0.2503)))


      (((0.7194 0.6496)
        (0.2806 0.3504))

       ((0.5996 0.5   )
        (0.4004 0.5   )))))




    (((((0.8596 0.8246)
        (0.1404 0.1754))

       ((0.7996 0.7497)
        (0.2004 0.2503)))


      (((0.7194 0.6496)
        (0.2806 0.3504))

       ((0.5996 0.5   )
        (0.4004 0.5   ))))



     ((((0.7194 0.6496)
        (0.2806 0.3504))

       ((0.5996 0.5   )
        (0.4004 0.5   )))


      (((0.4394 0.3   )
        (0.5606 0.7   ))

       ((0.2    0.001 )
        (0.8    0.999 )))))))));
}
potential (var_9 |){
 data = (0.011 0.989);
}
potential (var_90 | var_34 var_31){
 data = (((0.5996 0.5   )
  (0.4004 0.5   ))

 ((0.2    0.001 )
  (0.8    0.999 )));
}
potential (var_91 | var_20 var_34 var_23 var_1 var_2 var_18 var_4){
 data = ((((((((0.9175 0.8352)
       (0.0825 0.1648))

      ((0.9084 0.817 )
       (0.0916 0.183 )))


     (((0.9084 0.817 )
       (0.0916 0.183 ))

      ((0.8983 0.7969)
       (0.1017 0.2031))))



    ((((0.9084 0.817 )
       (0.0916 0.183 ))

      ((0.8983 0.7969)
       (0.1017 0.2031)))


     (((0.8983 0.7969)
       (0.1017 0.2031))

      ((0.8872 0.7745)
       (0.1128 0.2255)))))




   (((((0.9084 0.817 )
       (0.0916 0.183 ))

      ((0.8983 0.7969)
       (0.1017 0.2031)))


     (((0.8983 0.7969)
       (0.1017 0.2031))

      ((0.8872 0.7745)
       (0.1128 0.2255))))



    ((((0.8983 0.7969)
       (0.1017 0.2031))

      ((0.8872 0.7745)
       (0.1128 0.2255)))


     (((0.8872 0.7745)
       (0.1128 0.2255))

      ((0.8747 0.7497)
       (0.1253 0.2503))))))





  ((((((0.8352 0.6706)
       (0.1648 0.3294))

      ((0.817  0.6344)
       (0.183  0.3656)))


     (((0.817  0.6344)
       (0.183  0.3656))

      ((0.7969 0.5942)
       (0.2031 0.4058))))



    ((((0.817  0.6344)
       (0.183  0.3656))

      ((0.7969 0.5942)
       (0.2031 0.4058)))


     (((0.7969 0.5942)
       (0.2031 0.4058))

      ((0.7745 0.5495)
       (0.2255 0.4505)))))




   (((((0.817  0.6344)
       (0.183  0.3656))

      ((0.7969 0.5942)
       (0.2031 0.4058)))


     (((0.7969 0.5942)
       (0.2031 0.4058))

      ((0.7745 0.5495)
       (0.2255 0.4505))))



    ((((0.7969 0.5942)
       (0.2031 0.4058))

      ((0.7745 0.5495)
       (0.2255 0.4505)))


     (((0.7745 0.5495)
       (0.2255 0.4505))

      ((0.7497 0.5   )
       (0.2503 0.5   )))))))






 (((((((0.8352 0.6706)
       (0.1648 0.3294))

      ((0.817  0.6344)
       (0.183  0.3656)))


     (((0.817  0.6344)
       (0.183  0.3656))

      ((0.7969 0.5942)
       (0.2031 0.4058))))



    ((((0.817  0.6344)
       (0.183  0.3656))

      ((0.7969 0.5942)
       (0.2031 0.4058)))


     (((0.7969 0.5942)
       (0.2031 0.4058))

      ((0.7745 0.5495)
       (0.2255 0.4505)))))




   (((((0.817  0.6344)
       (0.183  0.3656))

      ((0.7969 0.5942)
       (0.2031 0.4058)))


     (((0.7969 0.5942)
       (0.2031 0.4058))

      ((0.7745 0.5495)
       (0.2255 0.4505))))



    ((((0.7969 0.5942)
       (0.2031 0.4058))

      ((0.7745 0.5495)
       (0.2255 0.4505)))


     (((0.7745 0.5495)
       (0.2255 0.4505))

      ((0.7497 0.5   )
       (0.2503 0.5   ))))))





  ((((((0.6706 0.3419)
       (0.3294 0.6581))

      ((0.6344 0.2695)
       (0.3656 0.7305)))


     (((0.6344 0.2695)
       (0.3656 0.7305))

      ((0.5942 0.1892)
       (0.4058 0.8108))))



    ((((0.6344 0.2695)
       (0.3656 0.7305))

      ((0.5942 0.1892)
       (0.4058 0.8108)))


     (((0.5942 0.1892)
       (0.4058 0.8108))

      ((0.5495 0.1   )
       (0.4505 0.9   )))))




   (((((0.6344 0.2695)
       (0.3656 0.7305))

      ((0.5942 0.1892)
       (0.4058 0.8108)))


     (((0.5942 0.1892)
       (0.4058 0.8108))

      ((0.5495 0.1   )
       (0.4505 0.9   ))))



    ((((0.5942 0.1892)
       (0.4058 0.8108))

      ((0.5495 0.1   )
       (0.4505 0.9   )))


     (((0.5495 0.1   )
       (0.4505 0.9   ))

      ((0.5    0.001 )
       (0.5    0.999 ))))))));
}
potential (var_92 | var_34 var_31){
 data = (((0.8398 0.6   )
  (0.1602 0.4   ))

 ((0.6    0.001 )
  (0.4    0.999 )));
}
potential (var_93 | var_4 var_0 var_27 var_35){
 data = (((((0.996  0.9599)
    (0.004  0.0401))

   ((0.9599 0.5996)
    (0.0401 0.4004)))


  (((0.995  0.9499)
    (0.005  0.0501))

   ((0.9499 0.5   )
    (0.0501 0.5   ))))



 ((((0.992  0.9199)
    (0.008  0.0801))

   ((0.9199 0.2   )
    (0.0801 0.8   )))


  (((0.99   0.9   )
    (0.01   0.1   ))

   ((0.9    0.001 )
    (0.1    0.999 )))));
}
potential (var_94 | var_0 var_7 var_35 var_1){
 data = (((((0.996  0.9599)
    (0.004  0.0401))

   ((0.9599 0.5996)
    (0.0401 0.4004)))


  (((0.995  0.9499)
    (0.005  0.0501))

   ((0.9499 0.5   )
    (0.0501 0.5   ))))



 ((((0.992  0.9199)
    (0.008  0.0801))

   ((0.9199 0.2   )
    (0.0801 0.8   )))


  (((0.99   0.9   )
    (0.01   0.1   ))

   ((0.9    0.001 )
    (0.1    0.999 )))));
}
potential (var_95 | var_35 var_21 var_2 var_0){
 data = (((((0.996  0.9599)
    (0.004  0.0401))

   ((0.9599 0.5996)
    (0.0401 0.4004)))


  (((0.995  0.9499)
    (0.005  0.0501))

   ((0.9499 0.5   )
    (0.0501 0.5   ))))



 ((((0.992  0.9199)
    (0.008  0.0801))

   ((0.9199 0.2   )
    (0.0801 0.8   )))


  (((0.99   0.9   )
    (0.01   0.1   ))

   ((0.9    0.001 )
    (0.1    0.999 )))));
}
potential (var_96 | var_33 var_0 var_8 var_12 var_16 var_26 var_35){
 data = ((((((((0.9898 0.9843)
       (0.0102 0.0157))

      ((0.9796 0.9686)
       (0.0204 0.0314)))


     (((0.9796 0.9686)
       (0.0204 0.0314))

      ((0.9592 0.9373)
       (0.0408 0.0627))))



    ((((0.9796 0.9686)
       (0.0204 0.0314))

      ((0.9592 0.9373)
       (0.0408 0.0627)))


     (((0.9592 0.9373)
       (0.0408 0.0627))

      ((0.9185 0.8747)
       (0.0815 0.1253)))))




   (((((0.9796 0.9686)
       (0.0204 0.0314))

      ((0.9592 0.9373)
       (0.0408 0.0627)))


     (((0.9592 0.9373)
       (0.0408 0.0627))

      ((0.9185 0.8747)
       (0.0815 0.1253))))



    ((((0.9592 0.9373)
       (0.0408 0.0627))

      ((0.9185 0.8747)
       (0.0815 0.1253)))


     (((0.9185 0.8747)
       (0.0815 0.1253))

      ((0.8372 0.7497)
       (0.1628 0.2503))))))





  ((((((0.9796 0.9686)
       (0.0204 0.0314))

      ((0.9592 0.9373)
       (0.0408 0.0627)))


     (((0.9592 0.9373)
       (0.0408 0.0627))

      ((0.9185 0.8747)
       (0.0815 0.1253))))



    ((((0.9592 0.9373)
       (0.0408 0.0627))

      ((0.9185 0.8747)
       (0.0815 0.1253)))


     (((0.9185 0.8747)
       (0.0815 0.1253))

      ((0.8372 0.7497)
       (0.1628 0.2503)))))




   (((((0.9592 0.9373)
       (0.0408 0.0627))

      ((0.9185 0.8747)
       (0.0815 0.1253)))


     (((0.9185 0.8747)
       (0.0815 0.1253))

      ((0.8372 0.7497)
       (0.1628 0.2503))))



    ((((0.9185 0.8747)
       (0.0815 0.1253))

      ((0.8372 0.7497)
       (0.1628 0.2503)))


     (((0.8372 0.7497)
       (0.1628 0.2503))

      ((0.6747 0.5   )
       (0.3253 0.5   )))))))






 (((((((0.9796 0.9686)
       (0.0204 0.0314))

      ((0.9592 0.9373)
       (0.0408 0.0627)))


     (((0.9592 0.9373)
       (0.0408 0.0627))

      ((0.9185 0.8747)
       (0.0815 0.1253))))



    ((((0.9592 0.9373)
       (0.0408 0.0627))

      ((0.9185 0.8747)
       (0.0815 0.1253)))


     (((0.9185 0.8747)
       (0.0815 0.1253))

      ((0.8372 0.7497)
       (0.1628 0.2503)))))




   (((((0.9592 0.9373)
       (0.0408 0.0627))

      ((0.9185 0.8747)
       (0.0815 0.1253)))


     (((0.9185 0.8747)
       (0.0815 0.1253))

      ((0.8372 0.7497)
       (0.1628 0.2503))))



    ((((0.9185 0.8747)
       (0.0815 0.1253))

      ((0.8372 0.7497)
       (0.1628 0.2503)))


     (((0.8372 0.7497)
       (0.1628 0.2503))

      ((0.6747 0.5   )
       (0.3253 0.5   ))))))





  ((((((0.9592 0.9373)
       (0.0408 0.0627))

      ((0.9185 0.8747)
       (0.0815 0.1253)))


     (((0.9185 0.8747)
       (0.0815 0.1253))

      ((0.8372 0.7497)
       (0.1628 0.2503))))



    ((((0.9185 0.8747)
       (0.0815 0.1253))

      ((0.8372 0.7497)
       (0.1628 0.2503)))


     (((0.8372 0.7497)
       (0.1628 0.2503))

      ((0.6747 0.5   )
       (0.3253 0.5   )))))




   (((((0.9185 0.8747)
       (0.0815 0.1253))

      ((0.8372 0.7497)
       (0.1628 0.2503)))


     (((0.8372 0.7497)
       (0.1628 0.2503))

      ((0.6747 0.5   )
       (0.3253 0.5   ))))



    ((((0.8372 0.7497)
       (0.1628 0.2503))

      ((0.6747 0.5   )
       (0.3253 0.5   )))


     (((0.6747 0.5   )
       (0.3253 0.5   ))

      ((0.35   0.001 )
       (0.65   0.999 ))))))));
}
potential (var_97 | var_33 var_0 var_12 var_16 var_8 var_35 var_26){
 data = ((((((((0.963  0.9611)
       (0.037  0.0389))

      ((0.2612 0.2231)
       (0.7388 0.7769)))


     (((0.9611 0.9591)
       (0.0389 0.0409))

      ((0.2231 0.183 )
       (0.7769 0.817 ))))



    ((((0.9611 0.9591)
       (0.0389 0.0409))

      ((0.2231 0.183 )
       (0.7769 0.817 )))


     (((0.9591 0.957 )
       (0.0409 0.043 ))

      ((0.183  0.1409)
       (0.817  0.8591)))))




   (((((0.9611 0.9591)
       (0.0389 0.0409))

      ((0.2231 0.183 )
       (0.7769 0.817 )))


     (((0.9591 0.957 )
       (0.0409 0.043 ))

      ((0.183  0.1409)
       (0.817  0.8591))))



    ((((0.9591 0.957 )
       (0.0409 0.043 ))

      ((0.183  0.1409)
       (0.817  0.8591)))


     (((0.957  0.9548)
       (0.043  0.0452))

      ((0.1409 0.0966)
       (0.8591 0.9034))))))





  ((((((0.9611 0.9591)
       (0.0389 0.0409))

      ((0.2231 0.183 )
       (0.7769 0.817 )))


     (((0.9591 0.957 )
       (0.0409 0.043 ))

      ((0.183  0.1409)
       (0.817  0.8591))))



    ((((0.9591 0.957 )
       (0.0409 0.043 ))

      ((0.183  0.1409)
       (0.817  0.8591)))


     (((0.957  0.9548)
       (0.043  0.0452))

      ((0.1409 0.0966)
       (0.8591 0.9034)))))




   (((((0.9591 0.957 )
       (0.0409 0.043 ))

      ((0.183  0.1409)
       (0.817  0.8591)))


     (((0.957  0.9548)
       (0.043  0.0452))

      ((0.1409 0.0966)
       (0.8591 0.9034))))



    ((((0.957  0.9548)
       (0.043  0.0452))

      ((0.1409 0.0966)
       (0.8591 0.9034)))


     (((0.9548 0.9525)
       (0.0452 0.0475))

      ((0.0966 0.05  )
       (0.9034 0.95  )))))))






 (((((((0.9611 0.9591)
       (0.0389 0.0409))

      ((0.2231 0.183 )
       (0.7769 0.817 )))


     (((0.9591 0.957 )
       (0.0409 0.043 ))

      ((0.183  0.1409)
       (0.817  0.8591))))



    ((((0.9591 0.957 )
       (0.0409 0.043 ))

      ((0.183  0.1409)
       (0.817  0.8591)))


     (((0.957  0.9548)
       (0.043  0.0452))

      ((0.1409 0.0966)
       (0.8591 0.9034)))))




   (((((0.9591 0.957 )
       (0.0409 0.043 ))

      ((0.183  0.1409)
       (0.817  0.8591)))


     (((0.957  0.9548)
       (0.043  0.0452))

      ((0.1409 0.0966)
       (0.8591 0.9034))))



    ((((0.957  0.9548)
       (0.043  0.0452))

      ((0.1409 0.0966)
       (0.8591 0.9034)))


     (((0.9548 0.9525)
       (0.0452 0.0475))

      ((0.0966 0.05  )
       (0.9034 0.95  ))))))





  ((((((0.9591 0.957 )
       (0.0409 0.043 ))

      ((0.183  0.1409)
       (0.817  0.8591)))


     (((0.957  0.9548)
       (0.043  0.0452))

      ((0.1409 0.0966)
       (0.8591 0.9034))))



    ((((0.957  0.9548)
       (0.043  0.0452))

      ((0.1409 0.0966)
       (0.8591 0.9034)))


     (((0.9548 0.9525)
       (0.0452 0.0475))

      ((0.0966 0.05  )
       (0.9034 0.95  )))))




   (((((0.957  0.9548)
       (0.043  0.0452))

      ((0.1409 0.0966)
       (0.8591 0.9034)))


     (((0.9548 0.9525)
       (0.0452 0.0475))

      ((0.0966 0.05  )
       (0.9034 0.95  ))))



    ((((0.9548 0.9525)
       (0.0452 0.0475))

      ((0.0966 0.05  )
       (0.9034 0.95  )))


     (((0.9525 0.95  )
       (0.0475 0.05  ))

      ((0.05   0.001 )
       (0.95   0.999 ))))))));
}
